3,20,25,0,circleshape
0.410446,-1.532711,0.170228,-0.466587,2.626368,-1.096272,2.323971,-2.073365,1.864952,-0.289247,1.190076,0.621495,-1.072449,1.377134,-2.741675,-0.770679,2.571071,2.191133,2.695309,0.063293,-0.696918,-0.818095,1.640515,0.078712,-0.089875,0.919178,0.264263,0.183220,1.681065,3.210379,-0.473157,1.390516,1.838902,0.723111,1.050132,1.350630,0.618709,2.079032,0.027139,0.436305,2.668126,1.945987,1.051099,-0.336951,1.036417,0.840724,1.176140,1.019957,-1.017427,0.081075,0.919595,0.150254,-0.851398,0.047791,-0.036553,0.178295,-0.649707,2.115486,-0.990516,1.616562,
-0.551946,-0.055912,-0.253780,-0.296094,-0.050281,0.307449,-0.115687,-0.181074,-0.034373,-0.566938,-0.091029,0.080868,-0.244574,-0.587852,-0.289703,0.432843,-0.688151,0.145303,0.169365,0.078933,-0.413008,-0.567142,0.176970,0.959665,0.719571,0.472643,0.063775,-1.529724,-0.851347,-0.183832,-0.103741,1.206878,0.147059,0.452966,0.166945,-0.404534,0.625580,0.371181,1.399422,0.540875,-0.230236,0.900126,-0.094868,1.219114,-0.444486,0.250247,1.695387,-0.723136,-0.782133,-0.617326,-0.647440,-0.125057,0.056644,0.124247,0.857730,-0.569050,0.416064,-0.121446,1.892530,0.444615,-0.418798,-0.326158,0.177809,0.044016,0.398385,-0.161540,-0.553934,0.989300,-0.026541,-0.215542,-0.568168,0.028871,-0.129125,-0.285317,-0.192124,0.162833,-0.800576,0.176625,0.317950,-0.317272,0.106179,0.287154,0.125813,-0.182416,0.252713,0.290882,-0.232297,0.460606,-0.168946,0.412865,0.072620,-0.119872,0.023053,0.120857,-0.210144,-0.197009,0.137908,0.031602,0.782938,-0.160244,0.877174,-0.630035,0.182526,-0.138967,-0.070202,-0.781022,-0.266611,-1.252765,0.691587,0.122481,0.003269,-0.184873,-0.041169,0.537269,0.380479,-0.290910,-0.166995,-0.436212,-1.567554,-0.189335,0.379886,-0.112317,-0.001823,0.417103,0.617525,-0.130063,-0.836566,0.149748,-0.304236,0.435325,-0.281574,-0.430077,0.365163,0.102894,0.519830,-0.673387,-0.041281,0.489754,-0.330853,-0.352005,1.096658,0.373704,0.137292,-0.387105,-0.241390,-0.440681,-0.611908,-1.440764,1.123438,0.260047,0.105939,-0.344899,-0.103032,0.099242,0.047999,-0.042653,-0.778370,-0.579189,-0.907781,-0.583468,-0.095266,-0.751889,-0.055043,0.629924,-0.514525,-0.512724,-0.166193,-0.099517,0.011644,0.465934,-0.419009,-0.448355,0.541714,0.301509,1.604045,-0.032423,0.106961,0.226289,-1.051495,-0.117149,0.207557,1.532796,-0.090101,-0.115333,-0.428994,-0.000289,-0.568012,-0.393004,0.618774,0.192222,0.102623,1.000075,-0.220787,-0.422622,0.437731,0.150149,-0.967807,1.314177,-1.034127,0.383402,0.058732,0.090573,-0.500579,0.358395,0.061877,-0.109969,0.377785,-0.230702,-0.032505,0.315205,0.009254,0.532492,-0.277741,-0.375390,0.178922,0.223991,0.123577,-0.199145,0.278054,0.420833,0.321248,-0.515647,-0.021444,0.459695,0.174521,0.252731,0.391767,0.906759,0.120028,-0.672252,-0.275088,0.525272,-0.432381,-0.673264,-0.044410,0.476809,-0.090542,-0.301601,-0.495226,-0.076830,0.377641,0.337569,0.378357,0.173738,-0.430332,-0.299024,-0.230750,-0.706385,0.093785,0.642444,-0.010706,-0.600343,0.428755,0.151163,0.709122,-0.334340,-0.607352,-0.052506,-0.372439,-0.263434,-1.050620,0.487583,-0.236627,0.050751,-0.653356,-0.303715,1.346767,-1.394372,-0.198074,0.226573,-0.081548,0.456180,0.243422,0.192724,0.012409,0.218765,-0.430622,-0.000344,-0.021541,0.567214,0.447083,0.118662,0.360105,-0.087339,0.022250,-0.052836,-0.541748,-1.059471,0.030755,0.236194,-0.096847,-0.505310,0.336434,0.334350,0.026067,-0.165344,-0.550762,0.170470,0.400097,-0.307661,-0.757566,-0.914423,0.434402,0.059994,0.172832,0.474350,1.429668,1.289130,-0.163652,0.095183,-0.106215,-0.620144,0.376243,0.074736,0.638085,0.037624,0.267669,0.181813,0.600282,-0.228933,0.117039,0.501889,0.580752,0.315325,-0.252870,-0.526194,-0.481108,-0.074886,-0.193726,0.784730,-0.104075,-0.636268,0.508703,0.235903,0.816422,-0.395021,-0.231547,0.489493,-0.117100,-0.271140,-0.987845,-0.381650,0.587071,-0.218460,0.347589,-0.047346,0.342373,-0.513344,-0.993967,-0.308419,-0.038472,-0.001672,0.111469,0.850086,-0.394221,-0.201843,0.252356,0.157603,1.124891,0.363123,-0.713176,-0.381338,-0.433672,-0.242673,0.255353,-0.611374,0.057214,0.487708,-0.258370,-1.380600,-0.622912,0.975268,-0.417373,0.366405,-0.175361,0.917899,-0.753595,-0.074302,1.550317,0.381152,0.219226,0.815829,0.147375,-0.342642,1.167514,0.383720,-0.984684,-0.264421,-0.676286,0.322268,0.322429,0.003695,-0.157461,0.304606,-1.099359,-0.703379,0.263340,-0.055656,1.452112,0.217897,0.375540,-0.635522,-0.031429,0.518891,0.249972,-0.485778,-0.294447,-0.315139,-0.547619,-0.247660,-0.669007,0.037286,0.247174,0.029254,0.574898,-0.302833,-0.081917,0.343292,-1.089232,0.196356,
0.050711,-0.198147,-0.190599,0.082851,-0.106066,-0.168705,-0.082385,0.369753,-0.223372,-0.167362,0.029514,0.185467,-0.024301,0.577823,0.395405,0.161685,-0.189313,0.495573,-0.038889,0.444076,-0.173230,0.082999,-0.091679,-0.140300,0.654906,-0.303655,0.029555,0.609376,0.353295,0.235888,-0.240607,0.820981,0.051673,-0.032428,-1.195274,-0.771256,0.403227,-0.126050,-0.144379,0.233044,-0.205534,0.660198,-0.138660,0.462214,1.230389,-0.181322,0.151693,-0.383318,0.287265,0.094076,0.209992,-0.365413,0.025079,1.130311,0.285401,-1.099856,-0.061160,0.425929,0.082432,-0.092333,-0.013460,0.382425,0.073115,0.087159,0.219433,-0.044767,-0.106508,-0.120549,-0.246053,0.120207,0.147383,-0.054023,0.058044,0.087083,-0.044282,0.538463,-0.108574,-0.869945,0.115523,0.132172,0.057919,0.975234,0.163689,-0.457077,-0.182830,-0.154695,0.097533,0.280450,0.017993,-0.007285,0.066670,-0.069132,0.113026,-1.441283,0.335623,-0.269939,-0.117664,-0.203550,-0.002471,-0.196114,0.096867,-0.302861,0.072149,-0.103324,0.280651,0.258744,-0.278496,0.618315,-0.191819,-0.473987,0.025550,-0.709982,0.003678,0.339067,0.597986,0.454021,0.003323,0.382337,-0.143769,-0.706010,0.143828,0.109302,-0.079854,0.180315,-0.626959,-0.409206,-0.093660,0.213023,0.545397,0.237009,-0.162996,0.355484,0.253305,0.573826,-0.737708,0.804614,-0.011276,0.219974,-0.074154,-0.173276,0.080896,0.308052,0.525312,-0.395912,-0.329834,0.288280,-0.137654,-1.487943,-0.201776,-0.351772,0.198654,-0.265251,-0.193121,-0.503851,0.606364,-0.355875,0.201614,0.713846,0.160007,-0.260549,-0.252447,0.039219,0.089555,0.126796,-1.325058,-0.779475,-0.202402,-0.082388,-0.127169,0.039997,-0.047684,0.988442,0.064038,-0.098112,0.021134,1.040505,-0.227525,1.693564,-0.316614,-0.366679,-0.147151,-0.210838,-0.173345,0.078960,0.299684,0.269009,-0.130997,-0.114262,-0.664433,0.213579,-0.130147,0.841873,0.025425,0.826292,-0.424985,-0.419663,0.185504,0.087835,-0.009080,0.574391,-0.241389,0.044350,-0.187534,0.144503,0.710077,-0.195193,-0.113236,0.663686,0.610848,0.745148,-0.012305,-0.040387,-0.003856,0.236778,-0.059848,-0.065228,0.147684,-0.274196,0.029412,0.576506,0.111520,-0.028058,-0.244175,0.419428,0.103832,0.019116,0.116593,-0.132645,0.649445,0.311647,0.027157,0.169632,-0.034497,0.672153,-0.030614,-0.346655,0.257557,-0.732693,0.160690,-0.569963,-0.084286,-1.600017,0.149473,-0.493968,0.283308,0.104170,-0.074978,0.092447,-0.446230,-0.280088,-0.115910,0.297205,-0.120502,-0.183780,0.786879,-0.484962,0.056072,0.368832,-0.059531,-0.279299,0.228459,0.878613,0.046314,-0.068710,-0.170215,0.214905,-0.178939,-0.217468,-0.008014,-0.053648,-0.068544,-0.152337,0.068613,-0.804639,-0.064678,0.901546,0.300499,-0.353770,-0.007491,-0.050165,0.163989,0.470466,0.153152,-0.246483,0.385788,0.039296,0.098107,0.209260,-0.606047,0.019171,0.065827,-0.451470,0.136988,-0.082137,0.141609,-0.135342,-0.171482,-0.588377,-0.107873,-0.111871,0.067466,1.191674,0.143532,-0.059715,-0.433004,0.113854,0.256400,-0.416582,-0.124034,-0.019027,0.061108,-0.076564,0.023585,-1.410660,0.180223,-0.310431,0.097386,-0.781333,-0.026254,0.254008,-0.285062,-0.513040,0.037048,0.031371,0.056263,0.143581,0.025662,-0.601740,0.003775,-0.446102,0.117266,0.113038,-0.284476,0.434444,0.190149,-0.279051,-0.158941,0.318979,0.241969,0.551677,-0.200415,0.294366,0.045903,0.066367,-0.349384,0.076337,0.024576,0.571350,0.828367,0.334489,-0.011085,-0.117902,0.067483,-0.079878,0.342745,-0.305772,0.370991,-0.045453,0.021159,-0.976119,-0.171273,0.065824,0.156589,-0.044036,-0.599609,0.043661,-0.382251,0.272650,-0.234950,0.135260,0.010730,0.216374,-0.099523,-0.557568,0.698162,0.523576,0.392489,-0.276375,0.024687,0.064450,0.003830,-1.134400,0.399176,-0.471331,-0.585969,0.145859,0.419536,0.136071,-0.465339,-0.190256,0.185779,-1.683296,-0.092896,-1.260332,1.664936,0.786709,-0.190898,0.360596,0.012658,-0.124281,-0.116977,0.026381,0.195202,-0.343035,-0.346395,-0.334341,0.149778,0.046162,0.566937,0.104681,-0.055419,-0.017377,0.105466,-0.387118,0.370722,-0.486073,0.098125,0.156956,-0.024366,-0.163786,
-0.330587,0.009960,-0.014862,-0.394898,-0.020268,-0.249804,-0.207151,0.110953,0.256803,0.099761,-0.590205,0.751844,-0.022508,-0.008639,-0.043145,0.449239,0.278476,0.378324,0.001798,-0.110740,-0.816847,-0.237584,-0.376172,-0.123661,0.043254,-0.217827,0.742951,-0.097534,-0.112986,-0.028991,-0.021879,0.041880,-0.298064,0.402751,-0.056910,-0.003044,-0.033773,-0.042528,-0.344760,-0.015380,0.680145,0.190877,0.122934,-0.280020,0.006382,-0.064188,0.837876,-0.245507,-0.195155,-0.028561,0.482325,-0.051143,0.241376,-0.162652,-0.005686,0.285599,0.165752,0.246011,0.099000,-0.015230,0.631099,-0.043632,0.094021,-0.000420,-0.043547,-0.049103,-0.312028,0.162104,-0.011522,-0.100946,0.083685,0.125815,0.444426,0.739536,-0.671003,-0.111814,-0.221050,-0.705715,0.046277,0.000833,0.744496,0.062173,-0.022572,-0.214785,-0.027978,0.184058,-0.168289,-0.400424,-0.026190,0.087391,-0.834004,-0.175258,0.488480,-0.242045,0.017279,0.190528,0.194017,-0.007892,0.218352,-0.021721,-0.372185,-0.247159,0.525914,-0.366727,0.015626,
