3,10,25,0
5.611231,-4.459407,-11.376911,21.161204,9.327396,20.799419,-9.173611,-0.296200,2.591466,9.124822,5.414252,8.034441,7.723225,0.431616,8.399821,0.036205,0.066994,-1.499763,6.008029,-0.293500,-1.336744,-0.031443,0.188038,14.123403,2.816807,-14.410115,19.051125,6.738271,3.943428,18.908808,
3.056324,-2.400537,0.361841,1.177723,-0.783974,-2.962426,2.659686,-0.168628,0.296292,-2.565529,-1.226183,-0.441673,-4.598838,-0.135664,-0.321411,6.846296,-4.222006,0.910726,-0.086971,1.780195,1.217688,-1.710431,0.050632,5.860163,-5.762959,-3.446597,-2.262412,1.157571,-4.514563,-2.126795,-1.373764,-3.583058,-1.308250,-1.210356,-6.921926,2.492162,-3.201378,0.151413,-8.047046,-1.066222,1.686249,0.882493,4.971716,5.241196,-4.095219,3.340673,-5.027179,-0.358838,6.840298,-7.292054,-3.023598,-3.651229,-3.912049,0.097101,-1.527975,1.247459,0.255280,6.856446,-4.229585,3.167908,5.323954,-2.278890,0.879468,1.214460,1.901921,0.179150,0.404733,10.280665,-0.951859,1.149625,-7.145402,-2.440616,-3.500851,-0.638771,-0.374839,2.570128,3.340911,-1.479281,-0.788960,-0.364732,-2.334892,-0.552517,-0.721109,2.605657,-0.207269,-0.240058,-0.636216,-0.012048,1.967250,-3.762720,-2.103849,2.430035,0.238537,0.146943,-2.620390,-6.369919,2.754495,0.323443,-2.903040,5.657368,0.445577,-3.684632,3.308417,6.406003,-1.749375,1.413050,-1.973565,-0.832169,7.646086,-0.936674,
-2.581270,-0.610430,-0.460182,-3.408574,-2.098091,0.900303,-3.436794,1.314136,3.324260,-1.783775,0.023658,-0.088621,-1.112425,-3.587876,2.107476,-0.365512,2.278886,2.231324,-1.957066,-0.468575,-1.629712,-0.040651,-0.390405,-0.626004,0.159677,0.077619,-1.204579,-1.593830,-0.016112,-0.264387,1.146752,-0.163441,1.932021,2.035136,0.922871,0.176286,0.893947,-1.226733,0.017876,0.865671,2.086039,0.294165,1.037990,0.298884,2.240666,-0.619863,1.489288,-2.354612,-2.166856,3.463191,1.436602,-0.079209,3.180118,2.326119,0.277077,-0.088958,-1.340149,-1.498127,-0.697322,0.349793,0.793540,-0.085373,-1.969278,-0.751105,0.209504,0.089943,-0.308293,-1.384402,0.498353,0.084440,-2.107282,0.328604,1.572269,1.544122,-1.318479,-0.208559,-2.127938,0.056526,-0.525829,-1.008280,1.666818,-0.688593,-3.815768,1.683283,-1.524596,-0.225425,-2.144184,-2.644232,-0.525336,1.271627,3.529868,-0.128237,0.006029,-1.819416,-1.505762,0.828867,-1.242701,2.191838,-1.905441,-1.919289,-1.133602,-0.140516,-1.048061,-1.700910,0.703024,0.216881,2.907619,1.033086,0.029471,0.874186,
-0.038630,-0.796139,0.113531,-0.019478,-0.020081,0.071816,0.436301,0.603729,-0.007348,-0.005604,0.010898,-0.186957,-0.043631,0.015704,0.652443,-0.603789,-0.023430,-0.005942,0.007488,-0.007117,0.543982,-0.345302,0.075391,-0.036082,0.010749,0.515594,0.203713,0.041390,0.560756,-0.458683,-0.035058,-0.381568,0.078199,-0.013066,0.087940,-0.577466,-0.520662,0.600054,0.020523,-0.025545,0.613568,-0.055357,0.058843,-0.028729,-0.021437,0.031896,0.331799,0.080152,-0.040135,0.043331,0.026494,-0.206998,-0.552091,-0.019687,0.490276,
